digraph Tree {
node [shape=box, style="filled", color="black", fontname="helvetica"] ;
edge [fontname="helvetica"] ;
0 [label="Cap_density <= 0.38\ngini = 0.497\nsamples = 257\nvalue = [184, 216]\nclass = NORMAL", fillcolor="#e2f0fb"] ;
1 [label="FAZ_circularity <= 0.482\ngini = 0.318\nsamples = 100\nvalue = [121.0, 30.0]\nclass = Not NORMAL", fillcolor="#eba06a"] ;
0 -> 1 [labeldistance=2.5, labelangle=45, headlabel="True"] ;
2 [label="Age <= 25.0\ngini = 0.188\nsamples = 65\nvalue = [85, 10]\nclass = Not NORMAL", fillcolor="#e89050"] ;
1 -> 2 ;
3 [label="Vein_density <= 0.046\ngini = 0.5\nsamples = 4\nvalue = [3, 3]\nclass = Not NORMAL", fillcolor="#ffffff"] ;
2 -> 3 ;
4 [label="gini = 0.0\nsamples = 2\nvalue = [3, 0]\nclass = Not NORMAL", fillcolor="#e58139"] ;
3 -> 4 ;
5 [label="gini = 0.0\nsamples = 2\nvalue = [0, 3]\nclass = NORMAL", fillcolor="#399de5"] ;
3 -> 5 ;
6 [label="Vein_diameter_index <= 8.884\ngini = 0.145\nsamples = 61\nvalue = [82, 7]\nclass = Not NORMAL", fillcolor="#e78c4a"] ;
2 -> 6 ;
7 [label="gini = 0.0\nsamples = 1\nvalue = [0, 1]\nclass = NORMAL", fillcolor="#399de5"] ;
6 -> 7 ;
8 [label="LV_density <= 0.055\ngini = 0.127\nsamples = 60\nvalue = [82, 6]\nclass = Not NORMAL", fillcolor="#e78a47"] ;
6 -> 8 ;
9 [label="Capillary_diameter_index <= 7.643\ngini = 0.444\nsamples = 3\nvalue = [1, 2]\nclass = NORMAL", fillcolor="#9ccef2"] ;
8 -> 9 ;
10 [label="gini = 0.0\nsamples = 2\nvalue = [0, 2]\nclass = NORMAL", fillcolor="#399de5"] ;
9 -> 10 ;
11 [label="gini = 0.0\nsamples = 1\nvalue = [1, 0]\nclass = Not NORMAL", fillcolor="#e58139"] ;
9 -> 11 ;
12 [label="Vein_density <= 0.023\ngini = 0.09\nsamples = 57\nvalue = [81, 4]\nclass = Not NORMAL", fillcolor="#e68743"] ;
8 -> 12 ;
13 [label="gini = 0.0\nsamples = 1\nvalue = [0, 1]\nclass = NORMAL", fillcolor="#399de5"] ;
12 -> 13 ;
14 [label="Art_density <= 0.051\ngini = 0.069\nsamples = 56\nvalue = [81, 3]\nclass = Not NORMAL", fillcolor="#e68640"] ;
12 -> 14 ;
15 [label="Art_density <= 0.047\ngini = 0.026\nsamples = 51\nvalue = [75, 1]\nclass = Not NORMAL", fillcolor="#e5833c"] ;
14 -> 15 ;
16 [label="gini = 0.0\nsamples = 43\nvalue = [64, 0]\nclass = Not NORMAL", fillcolor="#e58139"] ;
15 -> 16 ;
17 [label="Art_density <= 0.048\ngini = 0.153\nsamples = 8\nvalue = [11, 1]\nclass = Not NORMAL", fillcolor="#e78c4b"] ;
15 -> 17 ;
18 [label="gini = 0.0\nsamples = 1\nvalue = [0, 1]\nclass = NORMAL", fillcolor="#399de5"] ;
17 -> 18 ;
19 [label="gini = 0.0\nsamples = 7\nvalue = [11, 0]\nclass = Not NORMAL", fillcolor="#e58139"] ;
17 -> 19 ;
20 [label="Vein_diameter_index <= 8.921\ngini = 0.375\nsamples = 5\nvalue = [6, 2]\nclass = Not NORMAL", fillcolor="#eeab7b"] ;
14 -> 20 ;
21 [label="gini = 0.0\nsamples = 1\nvalue = [0, 2]\nclass = NORMAL", fillcolor="#399de5"] ;
20 -> 21 ;
22 [label="gini = 0.0\nsamples = 4\nvalue = [6, 0]\nclass = Not NORMAL", fillcolor="#e58139"] ;
20 -> 22 ;
23 [label="Vein_density <= 0.044\ngini = 0.459\nsamples = 35\nvalue = [36, 20]\nclass = Not NORMAL", fillcolor="#f3c7a7"] ;
1 -> 23 ;
24 [label="FAZ_circularity <= 0.511\ngini = 0.487\nsamples = 21\nvalue = [13, 18]\nclass = NORMAL", fillcolor="#c8e4f8"] ;
23 -> 24 ;
25 [label="gini = 0.0\nsamples = 4\nvalue = [0, 8]\nclass = NORMAL", fillcolor="#399de5"] ;
24 -> 25 ;
26 [label="Vein_density <= 0.043\ngini = 0.491\nsamples = 17\nvalue = [13.0, 10.0]\nclass = Not NORMAL", fillcolor="#f9e2d1"] ;
24 -> 26 ;
27 [label="Age <= 36.0\ngini = 0.36\nsamples = 14\nvalue = [13, 4]\nclass = Not NORMAL", fillcolor="#eda876"] ;
26 -> 27 ;
28 [label="Vein_density <= 0.03\ngini = 0.444\nsamples = 3\nvalue = [1, 2]\nclass = NORMAL", fillcolor="#9ccef2"] ;
27 -> 28 ;
29 [label="gini = 0.0\nsamples = 1\nvalue = [1, 0]\nclass = Not NORMAL", fillcolor="#e58139"] ;
28 -> 29 ;
30 [label="gini = 0.0\nsamples = 2\nvalue = [0, 2]\nclass = NORMAL", fillcolor="#399de5"] ;
28 -> 30 ;
31 [label="Capillary_diameter_index <= 6.931\ngini = 0.245\nsamples = 11\nvalue = [12, 2]\nclass = Not NORMAL", fillcolor="#e9965a"] ;
27 -> 31 ;
32 [label="gini = 0.0\nsamples = 1\nvalue = [0, 1]\nclass = NORMAL", fillcolor="#399de5"] ;
31 -> 32 ;
33 [label="Artery_diameter_index <= 8.953\ngini = 0.142\nsamples = 10\nvalue = [12, 1]\nclass = Not NORMAL", fillcolor="#e78c49"] ;
31 -> 33 ;
34 [label="gini = 0.0\nsamples = 7\nvalue = [9, 0]\nclass = Not NORMAL", fillcolor="#e58139"] ;
33 -> 34 ;
35 [label="LV_density <= 0.078\ngini = 0.375\nsamples = 3\nvalue = [3, 1]\nclass = Not NORMAL", fillcolor="#eeab7b"] ;
33 -> 35 ;
36 [label="gini = 0.0\nsamples = 2\nvalue = [3, 0]\nclass = Not NORMAL", fillcolor="#e58139"] ;
35 -> 36 ;
37 [label="gini = 0.0\nsamples = 1\nvalue = [0, 1]\nclass = NORMAL", fillcolor="#399de5"] ;
35 -> 37 ;
38 [label="gini = 0.0\nsamples = 3\nvalue = [0, 6]\nclass = NORMAL", fillcolor="#399de5"] ;
26 -> 38 ;
39 [label="FAZ_circularity <= 0.546\ngini = 0.147\nsamples = 14\nvalue = [23, 2]\nclass = Not NORMAL", fillcolor="#e78c4a"] ;
23 -> 39 ;
40 [label="Capillary_diameter_index <= 7.039\ngini = 0.32\nsamples = 7\nvalue = [8, 2]\nclass = Not NORMAL", fillcolor="#eca06a"] ;
39 -> 40 ;
41 [label="gini = 0.0\nsamples = 1\nvalue = [0, 1]\nclass = NORMAL", fillcolor="#399de5"] ;
40 -> 41 ;
42 [label="Vein_density <= 0.056\ngini = 0.198\nsamples = 6\nvalue = [8, 1]\nclass = Not NORMAL", fillcolor="#e89152"] ;
40 -> 42 ;
43 [label="gini = 0.0\nsamples = 5\nvalue = [8, 0]\nclass = Not NORMAL", fillcolor="#e58139"] ;
42 -> 43 ;
44 [label="gini = 0.0\nsamples = 1\nvalue = [0, 1]\nclass = NORMAL", fillcolor="#399de5"] ;
42 -> 44 ;
45 [label="gini = 0.0\nsamples = 7\nvalue = [15, 0]\nclass = Not NORMAL", fillcolor="#e58139"] ;
39 -> 45 ;
46 [label="Age <= 48.5\ngini = 0.378\nsamples = 157\nvalue = [63.0, 186.0]\nclass = NORMAL", fillcolor="#7cbeee"] ;
0 -> 46 [labeldistance=2.5, labelangle=-45, headlabel="False"] ;
47 [label="LV_density <= 0.079\ngini = 0.23\nsamples = 113\nvalue = [25, 164]\nclass = NORMAL", fillcolor="#57ace9"] ;
46 -> 47 ;
48 [label="LargeVessel_diameter_index <= 8.814\ngini = 0.091\nsamples = 70\nvalue = [6, 120]\nclass = NORMAL", fillcolor="#43a2e6"] ;
47 -> 48 ;
49 [label="gini = 0.0\nsamples = 1\nvalue = [1, 0]\nclass = Not NORMAL", fillcolor="#e58139"] ;
48 -> 49 ;
50 [label="Vein_diameter_index <= 8.942\ngini = 0.077\nsamples = 69\nvalue = [5, 120]\nclass = NORMAL", fillcolor="#41a1e6"] ;
48 -> 50 ;
51 [label="Capillary_diameter_index <= 6.693\ngini = 0.035\nsamples = 63\nvalue = [2, 110]\nclass = NORMAL", fillcolor="#3d9fe5"] ;
50 -> 51 ;
52 [label="gini = 0.0\nsamples = 38\nvalue = [0, 65]\nclass = NORMAL", fillcolor="#399de5"] ;
51 -> 52 ;
53 [label="Cap_density <= 0.439\ngini = 0.081\nsamples = 25\nvalue = [2, 45]\nclass = NORMAL", fillcolor="#42a1e6"] ;
51 -> 53 ;
54 [label="Art_density <= 0.044\ngini = 0.045\nsamples = 23\nvalue = [1, 42]\nclass = NORMAL", fillcolor="#3e9fe6"] ;
53 -> 54 ;
55 [label="gini = 0.0\nsamples = 20\nvalue = [0, 37]\nclass = NORMAL", fillcolor="#399de5"] ;
54 -> 55 ;
56 [label="LargeVessel_diameter_index <= 8.895\ngini = 0.278\nsamples = 3\nvalue = [1, 5]\nclass = NORMAL", fillcolor="#61b1ea"] ;
54 -> 56 ;
57 [label="gini = 0.0\nsamples = 1\nvalue = [1, 0]\nclass = Not NORMAL", fillcolor="#e58139"] ;
56 -> 57 ;
58 [label="gini = 0.0\nsamples = 2\nvalue = [0, 5]\nclass = NORMAL", fillcolor="#399de5"] ;
56 -> 58 ;
59 [label="Age <= 20.5\ngini = 0.375\nsamples = 2\nvalue = [1, 3]\nclass = NORMAL", fillcolor="#7bbeee"] ;
53 -> 59 ;
60 [label="gini = 0.0\nsamples = 1\nvalue = [0, 3]\nclass = NORMAL", fillcolor="#399de5"] ;
59 -> 60 ;
61 [label="gini = 0.0\nsamples = 1\nvalue = [1, 0]\nclass = Not NORMAL", fillcolor="#e58139"] ;
59 -> 61 ;
62 [label="Capillary_diameter_index <= 6.708\ngini = 0.355\nsamples = 6\nvalue = [3, 10]\nclass = NORMAL", fillcolor="#74baed"] ;
50 -> 62 ;
63 [label="Vein_density <= 0.038\ngini = 0.375\nsamples = 3\nvalue = [3, 1]\nclass = Not NORMAL", fillcolor="#eeab7b"] ;
62 -> 63 ;
64 [label="gini = 0.0\nsamples = 2\nvalue = [3, 0]\nclass = Not NORMAL", fillcolor="#e58139"] ;
63 -> 64 ;
65 [label="gini = 0.0\nsamples = 1\nvalue = [0, 1]\nclass = NORMAL", fillcolor="#399de5"] ;
63 -> 65 ;
66 [label="gini = 0.0\nsamples = 3\nvalue = [0, 9]\nclass = NORMAL", fillcolor="#399de5"] ;
62 -> 66 ;
67 [label="Art_density <= 0.036\ngini = 0.421\nsamples = 43\nvalue = [19, 44]\nclass = NORMAL", fillcolor="#8ec7f0"] ;
47 -> 67 ;
68 [label="gini = 0.0\nsamples = 2\nvalue = [4, 0]\nclass = Not NORMAL", fillcolor="#e58139"] ;
67 -> 68 ;
69 [label="Artery_diameter_index <= 8.943\ngini = 0.379\nsamples = 41\nvalue = [15, 44]\nclass = NORMAL", fillcolor="#7cbeee"] ;
67 -> 69 ;
70 [label="Vein_diameter_index <= 8.893\ngini = 0.265\nsamples = 34\nvalue = [8, 43]\nclass = NORMAL", fillcolor="#5eafea"] ;
69 -> 70 ;
71 [label="gini = 0.0\nsamples = 1\nvalue = [1, 0]\nclass = Not NORMAL", fillcolor="#e58139"] ;
70 -> 71 ;
72 [label="Vein_density <= 0.066\ngini = 0.241\nsamples = 33\nvalue = [7.0, 43.0]\nclass = NORMAL", fillcolor="#59ade9"] ;
70 -> 72 ;
73 [label="Age <= 7.5\ngini = 0.215\nsamples = 32\nvalue = [6, 43]\nclass = NORMAL", fillcolor="#55abe9"] ;
72 -> 73 ;
74 [label="gini = 0.0\nsamples = 1\nvalue = [1, 0]\nclass = Not NORMAL", fillcolor="#e58139"] ;
73 -> 74 ;
75 [label="Age <= 32.0\ngini = 0.187\nsamples = 31\nvalue = [5, 43]\nclass = NORMAL", fillcolor="#50a8e8"] ;
73 -> 75 ;
76 [label="Capillary_diameter_index <= 6.807\ngini = 0.056\nsamples = 21\nvalue = [1, 34]\nclass = NORMAL", fillcolor="#3fa0e6"] ;
75 -> 76 ;
77 [label="gini = 0.0\nsamples = 16\nvalue = [0, 28]\nclass = NORMAL", fillcolor="#399de5"] ;
76 -> 77 ;
78 [label="Art_density <= 0.052\ngini = 0.245\nsamples = 5\nvalue = [1, 6]\nclass = NORMAL", fillcolor="#5aade9"] ;
76 -> 78 ;
79 [label="gini = 0.0\nsamples = 4\nvalue = [0, 6]\nclass = NORMAL", fillcolor="#399de5"] ;
78 -> 79 ;
80 [label="gini = 0.0\nsamples = 1\nvalue = [1, 0]\nclass = Not NORMAL", fillcolor="#e58139"] ;
78 -> 80 ;
81 [label="Vein_density <= 0.05\ngini = 0.426\nsamples = 10\nvalue = [4, 9]\nclass = NORMAL", fillcolor="#91c9f1"] ;
75 -> 81 ;
82 [label="gini = 0.0\nsamples = 4\nvalue = [0, 5]\nclass = NORMAL", fillcolor="#399de5"] ;
81 -> 82 ;
83 [label="Art_density <= 0.054\ngini = 0.5\nsamples = 6\nvalue = [4, 4]\nclass = Not NORMAL", fillcolor="#ffffff"] ;
81 -> 83 ;
84 [label="gini = 0.0\nsamples = 4\nvalue = [4, 0]\nclass = Not NORMAL", fillcolor="#e58139"] ;
83 -> 84 ;
85 [label="gini = 0.0\nsamples = 2\nvalue = [0, 4]\nclass = NORMAL", fillcolor="#399de5"] ;
83 -> 85 ;
86 [label="gini = 0.0\nsamples = 1\nvalue = [1, 0]\nclass = Not NORMAL", fillcolor="#e58139"] ;
72 -> 86 ;
87 [label="Art_density <= 0.045\ngini = 0.219\nsamples = 7\nvalue = [7, 1]\nclass = Not NORMAL", fillcolor="#e99355"] ;
69 -> 87 ;
88 [label="Artery_diameter_index <= 8.956\ngini = 0.5\nsamples = 2\nvalue = [1, 1]\nclass = Not NORMAL", fillcolor="#ffffff"] ;
87 -> 88 ;
89 [label="gini = 0.0\nsamples = 1\nvalue = [0, 1]\nclass = NORMAL", fillcolor="#399de5"] ;
88 -> 89 ;
90 [label="gini = 0.0\nsamples = 1\nvalue = [1, 0]\nclass = Not NORMAL", fillcolor="#e58139"] ;
88 -> 90 ;
91 [label="gini = 0.0\nsamples = 5\nvalue = [6, 0]\nclass = Not NORMAL", fillcolor="#e58139"] ;
87 -> 91 ;
92 [label="LV_density <= 0.08\ngini = 0.464\nsamples = 44\nvalue = [38, 22]\nclass = Not NORMAL", fillcolor="#f4caac"] ;
46 -> 92 ;
93 [label="Vein_diameter_index <= 8.932\ngini = 0.466\nsamples = 20\nvalue = [10, 17]\nclass = NORMAL", fillcolor="#add7f4"] ;
92 -> 93 ;
94 [label="LargeVessel_diameter_index <= 8.855\ngini = 0.486\nsamples = 8\nvalue = [7, 5]\nclass = Not NORMAL", fillcolor="#f8dbc6"] ;
93 -> 94 ;
95 [label="gini = 0.0\nsamples = 2\nvalue = [5, 0]\nclass = Not NORMAL", fillcolor="#e58139"] ;
94 -> 95 ;
96 [label="Art_density <= 0.031\ngini = 0.408\nsamples = 6\nvalue = [2, 5]\nclass = NORMAL", fillcolor="#88c4ef"] ;
94 -> 96 ;
97 [label="gini = 0.0\nsamples = 1\nvalue = [1, 0]\nclass = Not NORMAL", fillcolor="#e58139"] ;
96 -> 97 ;
98 [label="Capillary_diameter_index <= 7.015\ngini = 0.278\nsamples = 5\nvalue = [1, 5]\nclass = NORMAL", fillcolor="#61b1ea"] ;
96 -> 98 ;
99 [label="gini = 0.0\nsamples = 4\nvalue = [0, 5]\nclass = NORMAL", fillcolor="#399de5"] ;
98 -> 99 ;
100 [label="gini = 0.0\nsamples = 1\nvalue = [1, 0]\nclass = Not NORMAL", fillcolor="#e58139"] ;
98 -> 100 ;
101 [label="LV_density <= 0.079\ngini = 0.32\nsamples = 12\nvalue = [3, 12]\nclass = NORMAL", fillcolor="#6ab6ec"] ;
93 -> 101 ;
102 [label="Cap_density <= 0.384\ngini = 0.245\nsamples = 11\nvalue = [2, 12]\nclass = NORMAL", fillcolor="#5aade9"] ;
101 -> 102 ;
103 [label="gini = 0.0\nsamples = 1\nvalue = [1, 0]\nclass = Not NORMAL", fillcolor="#e58139"] ;
102 -> 103 ;
104 [label="Art_density <= 0.034\ngini = 0.142\nsamples = 10\nvalue = [1, 12]\nclass = NORMAL", fillcolor="#49a5e7"] ;
102 -> 104 ;
105 [label="gini = 0.0\nsamples = 5\nvalue = [0, 8]\nclass = NORMAL", fillcolor="#399de5"] ;
104 -> 105 ;
106 [label="Art_density <= 0.036\ngini = 0.32\nsamples = 5\nvalue = [1, 4]\nclass = NORMAL", fillcolor="#6ab6ec"] ;
104 -> 106 ;
107 [label="gini = 0.0\nsamples = 1\nvalue = [1, 0]\nclass = Not NORMAL", fillcolor="#e58139"] ;
106 -> 107 ;
108 [label="gini = 0.0\nsamples = 4\nvalue = [0, 4]\nclass = NORMAL", fillcolor="#399de5"] ;
106 -> 108 ;
109 [label="gini = 0.0\nsamples = 1\nvalue = [1, 0]\nclass = Not NORMAL", fillcolor="#e58139"] ;
101 -> 109 ;
110 [label="FAZ_circularity <= 0.636\ngini = 0.257\nsamples = 24\nvalue = [28, 5]\nclass = Not NORMAL", fillcolor="#ea985c"] ;
92 -> 110 ;
111 [label="LargeVessel_diameter_index <= 8.876\ngini = 0.175\nsamples = 22\nvalue = [28, 3]\nclass = Not NORMAL", fillcolor="#e88e4e"] ;
110 -> 111 ;
112 [label="LV_density <= 0.104\ngini = 0.444\nsamples = 5\nvalue = [4, 2]\nclass = Not NORMAL", fillcolor="#f2c09c"] ;
111 -> 112 ;
113 [label="gini = 0.0\nsamples = 2\nvalue = [0, 2]\nclass = NORMAL", fillcolor="#399de5"] ;
112 -> 113 ;
114 [label="gini = 0.0\nsamples = 3\nvalue = [4, 0]\nclass = Not NORMAL", fillcolor="#e58139"] ;
112 -> 114 ;
115 [label="LargeVessel_diameter_index <= 8.922\ngini = 0.077\nsamples = 17\nvalue = [24, 1]\nclass = Not NORMAL", fillcolor="#e68641"] ;
111 -> 115 ;
116 [label="gini = 0.0\nsamples = 14\nvalue = [21, 0]\nclass = Not NORMAL", fillcolor="#e58139"] ;
115 -> 116 ;
117 [label="LargeVessel_diameter_index <= 8.924\ngini = 0.375\nsamples = 3\nvalue = [3, 1]\nclass = Not NORMAL", fillcolor="#eeab7b"] ;
115 -> 117 ;
118 [label="gini = 0.0\nsamples = 1\nvalue = [0, 1]\nclass = NORMAL", fillcolor="#399de5"] ;
117 -> 118 ;
119 [label="gini = 0.0\nsamples = 2\nvalue = [3, 0]\nclass = Not NORMAL", fillcolor="#e58139"] ;
117 -> 119 ;
120 [label="gini = 0.0\nsamples = 2\nvalue = [0, 2]\nclass = NORMAL", fillcolor="#399de5"] ;
110 -> 120 ;
}