digraph Tree {
node [shape=box, style="filled", color="black", fontname="helvetica"] ;
edge [fontname="helvetica"] ;
0 [label="Age <= 35.5\ngini = 0.494\nsamples = 191\nvalue = [133, 167]\nclass = NORMAL", fillcolor="#d7ebfa"] ;
1 [label="Vein_density <= 0.04\ngini = 0.251\nsamples = 78\nvalue = [19, 110]\nclass = NORMAL", fillcolor="#5baee9"] ;
0 -> 1 [labeldistance=2.5, labelangle=45, headlabel="True"] ;
2 [label="Age <= 24.5\ngini = 0.093\nsamples = 60\nvalue = [5, 97]\nclass = NORMAL", fillcolor="#43a2e6"] ;
1 -> 2 ;
3 [label="gini = 0.0\nsamples = 38\nvalue = [0, 62]\nclass = NORMAL", fillcolor="#399de5"] ;
2 -> 3 ;
4 [label="Vein_diameter_index <= 8.941\ngini = 0.219\nsamples = 22\nvalue = [5, 35]\nclass = NORMAL", fillcolor="#55abe9"] ;
2 -> 4 ;
5 [label="Capillary_diameter_index <= 6.858\ngini = 0.108\nsamples = 20\nvalue = [2, 33]\nclass = NORMAL", fillcolor="#45a3e7"] ;
4 -> 5 ;
6 [label="gini = 0.0\nsamples = 15\nvalue = [0, 25]\nclass = NORMAL", fillcolor="#399de5"] ;
5 -> 6 ;
7 [label="FAZ_circularity <= 0.534\ngini = 0.32\nsamples = 5\nvalue = [2, 8]\nclass = NORMAL", fillcolor="#6ab6ec"] ;
5 -> 7 ;
8 [label="gini = 0.0\nsamples = 3\nvalue = [0, 7]\nclass = NORMAL", fillcolor="#399de5"] ;
7 -> 8 ;
9 [label="Art_density <= 0.049\ngini = 0.444\nsamples = 2\nvalue = [2, 1]\nclass = Not NORMAL", fillcolor="#f2c09c"] ;
7 -> 9 ;
10 [label="gini = 0.0\nsamples = 1\nvalue = [2, 0]\nclass = Not NORMAL", fillcolor="#e58139"] ;
9 -> 10 ;
11 [label="gini = 0.0\nsamples = 1\nvalue = [0, 1]\nclass = NORMAL", fillcolor="#399de5"] ;
9 -> 11 ;
12 [label="Artery_diameter_index <= 8.899\ngini = 0.48\nsamples = 2\nvalue = [3, 2]\nclass = Not NORMAL", fillcolor="#f6d5bd"] ;
4 -> 12 ;
13 [label="gini = 0.0\nsamples = 1\nvalue = [0, 2]\nclass = NORMAL", fillcolor="#399de5"] ;
12 -> 13 ;
14 [label="gini = 0.0\nsamples = 1\nvalue = [3, 0]\nclass = Not NORMAL", fillcolor="#e58139"] ;
12 -> 14 ;
15 [label="FAZ_circularity <= 0.436\ngini = 0.499\nsamples = 18\nvalue = [14, 13]\nclass = Not NORMAL", fillcolor="#fdf6f1"] ;
1 -> 15 ;
16 [label="Capillary_diameter_index <= 6.898\ngini = 0.26\nsamples = 7\nvalue = [11, 2]\nclass = Not NORMAL", fillcolor="#ea985d"] ;
15 -> 16 ;
17 [label="gini = 0.0\nsamples = 4\nvalue = [8, 0]\nclass = Not NORMAL", fillcolor="#e58139"] ;
16 -> 17 ;
18 [label="Artery_diameter_index <= 8.923\ngini = 0.48\nsamples = 3\nvalue = [3, 2]\nclass = Not NORMAL", fillcolor="#f6d5bd"] ;
16 -> 18 ;
19 [label="gini = 0.0\nsamples = 2\nvalue = [3, 0]\nclass = Not NORMAL", fillcolor="#e58139"] ;
18 -> 19 ;
20 [label="gini = 0.0\nsamples = 1\nvalue = [0, 2]\nclass = NORMAL", fillcolor="#399de5"] ;
18 -> 20 ;
21 [label="Capillary_diameter_index <= 7.245\ngini = 0.337\nsamples = 11\nvalue = [3, 11]\nclass = NORMAL", fillcolor="#6fb8ec"] ;
15 -> 21 ;
22 [label="gini = 0.0\nsamples = 8\nvalue = [0, 11]\nclass = NORMAL", fillcolor="#399de5"] ;
21 -> 22 ;
23 [label="gini = 0.0\nsamples = 3\nvalue = [3, 0]\nclass = Not NORMAL", fillcolor="#e58139"] ;
21 -> 23 ;
24 [label="Artery_diameter_index <= 8.916\ngini = 0.444\nsamples = 113\nvalue = [114, 57]\nclass = Not NORMAL", fillcolor="#f2c09c"] ;
0 -> 24 [labeldistance=2.5, labelangle=-45, headlabel="False"] ;
25 [label="Vein_density <= 0.043\ngini = 0.475\nsamples = 32\nvalue = [21, 33]\nclass = NORMAL", fillcolor="#b7dbf6"] ;
24 -> 25 ;
26 [label="Cap_density <= 0.225\ngini = 0.264\nsamples = 17\nvalue = [5, 27]\nclass = NORMAL", fillcolor="#5eafea"] ;
25 -> 26 ;
27 [label="gini = 0.0\nsamples = 1\nvalue = [2, 0]\nclass = Not NORMAL", fillcolor="#e58139"] ;
26 -> 27 ;
28 [label="Art_density <= 0.028\ngini = 0.18\nsamples = 16\nvalue = [3, 27]\nclass = NORMAL", fillcolor="#4fa8e8"] ;
26 -> 28 ;
29 [label="Vein_diameter_index <= 8.91\ngini = 0.444\nsamples = 2\nvalue = [2, 1]\nclass = Not NORMAL", fillcolor="#f2c09c"] ;
28 -> 29 ;
30 [label="gini = 0.0\nsamples = 1\nvalue = [0, 1]\nclass = NORMAL", fillcolor="#399de5"] ;
29 -> 30 ;
31 [label="gini = 0.0\nsamples = 1\nvalue = [2, 0]\nclass = Not NORMAL", fillcolor="#e58139"] ;
29 -> 31 ;
32 [label="Cap_density <= 0.423\ngini = 0.071\nsamples = 14\nvalue = [1, 26]\nclass = NORMAL", fillcolor="#41a1e6"] ;
28 -> 32 ;
33 [label="gini = 0.0\nsamples = 8\nvalue = [0, 19]\nclass = NORMAL", fillcolor="#399de5"] ;
32 -> 33 ;
34 [label="Cap_density <= 0.427\ngini = 0.219\nsamples = 6\nvalue = [1, 7]\nclass = NORMAL", fillcolor="#55abe9"] ;
32 -> 34 ;
35 [label="gini = 0.0\nsamples = 1\nvalue = [1, 0]\nclass = Not NORMAL", fillcolor="#e58139"] ;
34 -> 35 ;
36 [label="gini = 0.0\nsamples = 5\nvalue = [0, 7]\nclass = NORMAL", fillcolor="#399de5"] ;
34 -> 36 ;
37 [label="Vein_density <= 0.051\ngini = 0.397\nsamples = 15\nvalue = [16, 6]\nclass = Not NORMAL", fillcolor="#efb083"] ;
25 -> 37 ;
38 [label="Art_density <= 0.041\ngini = 0.48\nsamples = 11\nvalue = [9, 6]\nclass = Not NORMAL", fillcolor="#f6d5bd"] ;
37 -> 38 ;
39 [label="gini = 0.0\nsamples = 6\nvalue = [8, 0]\nclass = Not NORMAL", fillcolor="#e58139"] ;
38 -> 39 ;
40 [label="Capillary_diameter_index <= 7.209\ngini = 0.245\nsamples = 5\nvalue = [1, 6]\nclass = NORMAL", fillcolor="#5aade9"] ;
38 -> 40 ;
41 [label="gini = 0.0\nsamples = 4\nvalue = [0, 6]\nclass = NORMAL", fillcolor="#399de5"] ;
40 -> 41 ;
42 [label="gini = 0.0\nsamples = 1\nvalue = [1, 0]\nclass = Not NORMAL", fillcolor="#e58139"] ;
40 -> 42 ;
43 [label="gini = 0.0\nsamples = 4\nvalue = [7, 0]\nclass = Not NORMAL", fillcolor="#e58139"] ;
37 -> 43 ;
44 [label="LargeVessel_diameter_index <= 8.923\ngini = 0.326\nsamples = 81\nvalue = [93, 24]\nclass = Not NORMAL", fillcolor="#eca26c"] ;
24 -> 44 ;
45 [label="FAZ_circularity <= 0.448\ngini = 0.271\nsamples = 72\nvalue = [88, 17]\nclass = Not NORMAL", fillcolor="#ea995f"] ;
44 -> 45 ;
46 [label="LargeVessel_diameter_index <= 8.873\ngini = 0.144\nsamples = 39\nvalue = [59, 5]\nclass = Not NORMAL", fillcolor="#e78c4a"] ;
45 -> 46 ;
47 [label="Age <= 66.0\ngini = 0.305\nsamples = 9\nvalue = [13, 3]\nclass = Not NORMAL", fillcolor="#eb9e67"] ;
46 -> 47 ;
48 [label="gini = 0.0\nsamples = 7\nvalue = [13, 0]\nclass = Not NORMAL", fillcolor="#e58139"] ;
47 -> 48 ;
49 [label="gini = 0.0\nsamples = 2\nvalue = [0, 3]\nclass = NORMAL", fillcolor="#399de5"] ;
47 -> 49 ;
50 [label="Art_density <= 0.028\ngini = 0.08\nsamples = 30\nvalue = [46, 2]\nclass = Not NORMAL", fillcolor="#e68642"] ;
46 -> 50 ;
51 [label="FAZ_circularity <= 0.334\ngini = 0.444\nsamples = 2\nvalue = [1, 2]\nclass = NORMAL", fillcolor="#9ccef2"] ;
50 -> 51 ;
52 [label="gini = 0.0\nsamples = 1\nvalue = [0, 2]\nclass = NORMAL", fillcolor="#399de5"] ;
51 -> 52 ;
53 [label="gini = 0.0\nsamples = 1\nvalue = [1, 0]\nclass = Not NORMAL", fillcolor="#e58139"] ;
51 -> 53 ;
54 [label="gini = 0.0\nsamples = 28\nvalue = [45, 0]\nclass = Not NORMAL", fillcolor="#e58139"] ;
50 -> 54 ;
55 [label="LargeVessel_diameter_index <= 8.893\ngini = 0.414\nsamples = 33\nvalue = [29, 12]\nclass = Not NORMAL", fillcolor="#f0b58b"] ;
45 -> 55 ;
56 [label="Cap_density <= 0.41\ngini = 0.497\nsamples = 12\nvalue = [6, 7]\nclass = NORMAL", fillcolor="#e3f1fb"] ;
55 -> 56 ;
57 [label="Art_density <= 0.048\ngini = 0.375\nsamples = 7\nvalue = [6, 2]\nclass = Not NORMAL", fillcolor="#eeab7b"] ;
56 -> 57 ;
58 [label="Art_density <= 0.039\ngini = 0.245\nsamples = 6\nvalue = [6, 1]\nclass = Not NORMAL", fillcolor="#e9965a"] ;
57 -> 58 ;
59 [label="Art_density <= 0.038\ngini = 0.444\nsamples = 3\nvalue = [2, 1]\nclass = Not NORMAL", fillcolor="#f2c09c"] ;
58 -> 59 ;
60 [label="gini = 0.0\nsamples = 2\nvalue = [2, 0]\nclass = Not NORMAL", fillcolor="#e58139"] ;
59 -> 60 ;
61 [label="gini = 0.0\nsamples = 1\nvalue = [0, 1]\nclass = NORMAL", fillcolor="#399de5"] ;
59 -> 61 ;
62 [label="gini = 0.0\nsamples = 3\nvalue = [4, 0]\nclass = Not NORMAL", fillcolor="#e58139"] ;
58 -> 62 ;
63 [label="gini = 0.0\nsamples = 1\nvalue = [0, 1]\nclass = NORMAL", fillcolor="#399de5"] ;
57 -> 63 ;
64 [label="gini = 0.0\nsamples = 5\nvalue = [0, 5]\nclass = NORMAL", fillcolor="#399de5"] ;
56 -> 64 ;
65 [label="Art_density <= 0.046\ngini = 0.293\nsamples = 21\nvalue = [23, 5]\nclass = Not NORMAL", fillcolor="#eb9c64"] ;
55 -> 65 ;
66 [label="Art_density <= 0.045\ngini = 0.375\nsamples = 16\nvalue = [15, 5]\nclass = Not NORMAL", fillcolor="#eeab7b"] ;
65 -> 66 ;
67 [label="FAZ_circularity <= 0.451\ngini = 0.278\nsamples = 15\nvalue = [15, 3]\nclass = Not NORMAL", fillcolor="#ea9a61"] ;
66 -> 67 ;
68 [label="gini = 0.0\nsamples = 1\nvalue = [0, 1]\nclass = NORMAL", fillcolor="#399de5"] ;
67 -> 68 ;
69 [label="LargeVessel_diameter_index <= 8.921\ngini = 0.208\nsamples = 14\nvalue = [15, 2]\nclass = Not NORMAL", fillcolor="#e89253"] ;
67 -> 69 ;
70 [label="Artery_diameter_index <= 8.953\ngini = 0.124\nsamples = 12\nvalue = [14, 1]\nclass = Not NORMAL", fillcolor="#e78a47"] ;
69 -> 70 ;
71 [label="gini = 0.0\nsamples = 9\nvalue = [12, 0]\nclass = Not NORMAL", fillcolor="#e58139"] ;
70 -> 71 ;
72 [label="Cap_density <= 0.3\ngini = 0.444\nsamples = 3\nvalue = [2, 1]\nclass = Not NORMAL", fillcolor="#f2c09c"] ;
70 -> 72 ;
73 [label="gini = 0.0\nsamples = 1\nvalue = [0, 1]\nclass = NORMAL", fillcolor="#399de5"] ;
72 -> 73 ;
74 [label="gini = 0.0\nsamples = 2\nvalue = [2, 0]\nclass = Not NORMAL", fillcolor="#e58139"] ;
72 -> 74 ;
75 [label="Capillary_diameter_index <= 7.493\ngini = 0.5\nsamples = 2\nvalue = [1, 1]\nclass = Not NORMAL", fillcolor="#ffffff"] ;
69 -> 75 ;
76 [label="gini = 0.0\nsamples = 1\nvalue = [0, 1]\nclass = NORMAL", fillcolor="#399de5"] ;
75 -> 76 ;
77 [label="gini = 0.0\nsamples = 1\nvalue = [1, 0]\nclass = Not NORMAL", fillcolor="#e58139"] ;
75 -> 77 ;
78 [label="gini = 0.0\nsamples = 1\nvalue = [0, 2]\nclass = NORMAL", fillcolor="#399de5"] ;
66 -> 78 ;
79 [label="gini = 0.0\nsamples = 5\nvalue = [8, 0]\nclass = Not NORMAL", fillcolor="#e58139"] ;
65 -> 79 ;
80 [label="Cap_density <= 0.382\ngini = 0.486\nsamples = 9\nvalue = [5, 7]\nclass = NORMAL", fillcolor="#c6e3f8"] ;
44 -> 80 ;
81 [label="gini = 0.0\nsamples = 2\nvalue = [2, 0]\nclass = Not NORMAL", fillcolor="#e58139"] ;
80 -> 81 ;
82 [label="Vein_density <= 0.053\ngini = 0.42\nsamples = 7\nvalue = [3, 7]\nclass = NORMAL", fillcolor="#8ec7f0"] ;
80 -> 82 ;
83 [label="Art_density <= 0.048\ngini = 0.219\nsamples = 5\nvalue = [1, 7]\nclass = NORMAL", fillcolor="#55abe9"] ;
82 -> 83 ;
84 [label="gini = 0.0\nsamples = 4\nvalue = [0, 7]\nclass = NORMAL", fillcolor="#399de5"] ;
83 -> 84 ;
85 [label="gini = 0.0\nsamples = 1\nvalue = [1, 0]\nclass = Not NORMAL", fillcolor="#e58139"] ;
83 -> 85 ;
86 [label="gini = 0.0\nsamples = 2\nvalue = [2, 0]\nclass = Not NORMAL", fillcolor="#e58139"] ;
82 -> 86 ;
}